//Exported classifier to plain C
#pragma once
#include <cstdarg>
namespace Eloquent {
    namespace ML {
        namespace Port {
            class SVM {
                public:
                    /**
                    * Predict class for features vector
                    */
                    int predict(float *x) {
                        float kernels[58] = { 0 };
                        float decisions[3] = { 0 };
                        int votes[3] = { 0 };
                        kernels[0] = compute_kernel(x,   11.44  , 8.08  , 6.26  , 8.08  , 8.08  , 7.24  , 8.08  , 10.219999  , 15.78  , 19.82  , 23.459999  , 25.599998  , 25.84  , 26.34  , 25.08  , 24.82  , 22.879999  , 22.299999  , 21.1  , 19.139999  , 17.719999  , 14.92  , 13.04  , 11.44  , 10.219999  , 9.559999  , 10.219999  , 12.54  , 12.0  , 12.54  , 12.54  , 12.54  , 13.04  , 13.54  , 13.54  , 13.54  , 14.02  , 14.02  , 14.02  , 13.04  , 13.54  , 13.04  , 13.04  , 13.54  , 13.54  , 13.04  , 12.54  , 12.0  , 12.0  , 11.44  , 11.44  , 12.0  , 10.86  , 10.86  , 10.219999  , 9.559999  , 8.86  , 8.08  , 7.24  , 6.26  , 6.26  , 6.26  , 5.1  , 5.1 );
                        kernels[1] = compute_kernel(x,   81.040001  , 73.659996  , 64.860001  , 57.459999  , 56.539997  , 47.619999  , 46.639999  , 77.479996  , 16.98  , 22.02  , 22.02  , 13.04  , 9.559999  , 3.62  , 3.62  , 0.0  , 3.62  , 10.219999  , 13.54  , 12.54  , 11.44  , 12.54  , 14.48  , 16.58  , 19.139999  , 19.139999  , 18.799999  , 16.58  , 16.58  , 16.98  , 18.1  , 20.139999  , 20.779999  , 20.139999  , 20.139999  , 18.799999  , 19.82  , 18.459999  , 17.359999  , 16.58  , 16.98  , 17.359999  , 16.58  , 14.48  , 13.54  , 12.0  , 12.54  , 12.54  , 11.44  , 12.54  , 11.44  , 11.44  , 11.44  , 11.44  , 12.0  , 11.44  , 10.86  , 10.219999  , 9.559999  , 8.86  , 8.86  , 8.08  , 8.08  , 7.24 );
                        kernels[2] = compute_kernel(x,   30.699999  , 13.04  , 8.86  , 6.26  , 13.04  , 15.339999  , 16.98  , 22.299999  , 23.74  , 24.539999  , 24.539999  , 22.879999  , 19.48  , 21.719999  , 26.84  , 30.059999  , 19.139999  , 17.359999  , 15.78  , 15.339999  , 14.48  , 15.78  , 14.48  , 14.48  , 13.54  , 12.54  , 8.86  , 7.24  , 8.08  , 6.26  , 3.62  , 3.62  , 3.62  , 3.62  , 3.62  , 5.1  , 3.62  , 3.62  , 0.0  , 0.0  , 0.0  , 0.0  , 0.0  , 0.0  , 0.0  , 0.0  , 3.62  , 6.26  , 8.08  , 8.08  , 9.559999  , 11.44  , 10.86  , 8.86  , 7.24  , 6.26  , 3.62  , 3.62  , 0.0  , 0.0  , 0.0  , 0.0  , 0.0  , 3.62 );
                        kernels[3] = compute_kernel(x,   18.1  , 16.18  , 16.18  , 20.139999  , 18.799999  , 24.279999  , 62.379997  , 26.599998  , 19.48  , 16.18  , 20.459999  , 19.139999  , 19.48  , 19.139999  , 17.719999  , 16.58  , 16.18  , 15.78  , 13.04  , 8.86  , 7.24  , 5.1  , 5.1  , 3.62  , 0.0  , 3.62  , 3.62  , 3.62  , 3.62  , 3.62  , 0.0  , 0.0  , 0.0  , 0.0  , 0.0  , 0.0  , 0.0  , 0.0  , 3.62  , 6.26  , 7.24  , 8.86  , 8.86  , 9.559999  , 9.559999  , 9.559999  , 8.86  , 8.86  , 7.24  , 6.26  , 6.26  , 5.1  , 3.62  , 0.0  , 0.0  , 0.0  , 0.0  , 0.0  , 0.0  , 0.0  , 0.0  , 0.0  , 0.0  , 0.0 );
                        kernels[4] = compute_kernel(x,   24.0  , 21.1  , 25.84  , 29.84  , 34.52  , 35.639999  , 34.139999  , 34.139999  , 31.959999  , 28.719999  , 28.26  , 28.5  , 54.779999  , 11.44  , 13.54  , 18.799999  , 15.339999  , 8.86  , 8.08  , 9.559999  , 10.86  , 10.219999  , 12.0  , 13.54  , 9.559999  , 7.24  , 8.08  , 8.08  , 7.24  , 5.1  , 3.62  , 0.0  , 0.0  , 3.62  , 3.62  , 3.62  , 3.62  , 5.1  , 5.1  , 5.1  , 3.62  , 5.1  , 5.1  , 6.26  , 7.24  , 8.86  , 8.86  , 10.86  , 11.44  , 13.54  , 14.92  , 14.48  , 14.02  , 13.54  , 13.04  , 12.54  , 13.04  , 12.54  , 13.04  , 12.54  , 13.04  , 13.04  , 12.0  , 11.44 );
                        kernels[5] = compute_kernel(x,   34.719997  , 32.380001  , 42.98  , 50.939999  , 30.279999  , 18.459999  , 14.92  , 12.54  , 11.44  , 11.44  , 12.54  , 14.48  , 14.02  , 11.44  , 10.219999  , 10.219999  , 9.559999  , 10.219999  , 11.44  , 10.86  , 10.86  , 6.26  , 5.1  , 3.62  , 0.0  , 0.0  , 0.0  , 0.0  , 0.0  , 3.62  , 6.26  , 7.24  , 8.08  , 9.559999  , 10.219999  , 10.86  , 10.86  , 10.219999  , 10.86  , 10.86  , 10.86  , 11.44  , 10.86  , 11.44  , 10.86  , 11.44  , 11.44  , 11.44  , 11.44  , 11.44  , 11.44  , 10.86  , 10.86  , 10.219999  , 10.219999  , 9.559999  , 8.86  , 8.08  , 8.08  , 6.26  , 7.24  , 6.26  , 5.1  , 5.1 );
                        kernels[6] = compute_kernel(x,   39.48  , 39.48  , 38.98  , 38.139999  , 35.099998  , 30.279999  , 27.559999  , 21.1  , 82.779999  , 34.34  , 33.559998  , 14.92  , 10.219999  , 7.24  , 3.62  , 3.62  , 5.1  , 8.08  , 9.559999  , 10.219999  , 9.559999  , 8.08  , 6.26  , 5.1  , 3.62  , 3.62  , 5.1  , 5.1  , 5.1  , 3.62  , 3.62  , 3.62  , 3.62  , 5.1  , 6.26  , 6.26  , 6.26  , 7.24  , 7.24  , 7.24  , 7.24  , 7.24  , 6.26  , 7.24  , 8.08  , 9.559999  , 9.559999  , 8.86  , 8.08  , 8.86  , 8.86  , 8.08  , 7.24  , 7.24  , 6.26  , 5.1  , 5.1  , 5.1  , 3.62  , 3.62  , 3.62  , 0.0  , 0.0  , 3.62 );
                        kernels[7] = compute_kernel(x,   25.84  , 24.539999  , 32.98  , 27.08  , 36.380001  , 44.48  , 38.139999  , 15.339999  , 6.26  , 7.24  , 3.62  , 0.0  , 6.26  , 10.86  , 13.54  , 16.98  , 18.799999  , 20.139999  , 21.719999  , 21.4  , 20.459999  , 20.779999  , 21.719999  , 21.719999  , 20.779999  , 19.82  , 19.82  , 18.459999  , 18.1  , 17.359999  , 16.98  , 16.98  , 16.18  , 15.339999  , 14.02  , 14.48  , 13.04  , 12.0  , 12.0  , 11.44  , 10.86  , 10.219999  , 10.86  , 10.86  , 10.219999  , 9.559999  , 10.219999  , 9.559999  , 9.559999  , 9.559999  , 8.86  , 8.86  , 8.08  , 8.08  , 6.26  , 7.24  , 6.26  , 5.1  , 5.1  , 5.1  , 5.1  , 3.62  , 3.62  , 3.62 );
                        kernels[8] = compute_kernel(x,   26.099998  , 21.719999  , 14.48  , 7.24  , 3.62  , 0.0  , 6.26  , 7.24  , 18.799999  , 15.78  , 14.02  , 15.339999  , 14.02  , 14.92  , 16.18  , 22.02  , 17.359999  , 17.719999  , 12.0  , 7.24  , 5.1  , 3.62  , 0.0  , 3.62  , 5.1  , 7.24  , 8.08  , 10.219999  , 12.54  , 14.02  , 16.18  , 16.58  , 16.58  , 17.359999  , 16.18  , 16.18  , 14.02  , 14.48  , 13.54  , 12.0  , 11.44  , 10.219999  , 8.08  , 8.86  , 8.86  , 7.24  , 8.08  , 6.26  , 0.0  , 0.0  , 3.62  , 3.62  , 5.1  , 8.86  , 10.219999  , 9.559999  , 10.219999  , 9.559999  , 9.559999  , 10.219999  , 10.219999  , 10.219999  , 10.86  , 10.86 );
                        kernels[9] = compute_kernel(x,   47.879997  , 43.439999  , 38.299999  , 43.279999  , 144.399994  , 38.299999  , 29.179998  , 30.5  , 24.279999  , 28.039999  , 21.719999  , 14.48  , 5.1  , 10.86  , 5.1  , 0.0  , 15.78  , 21.4  , 17.359999  , 14.02  , 14.02  , 14.48  , 14.92  , 15.339999  , 23.459999  , 22.299999  , 21.719999  , 19.82  , 16.98  , 14.48  , 16.58  , 15.78  , 18.799999  , 18.799999  , 17.359999  , 15.339999  , 15.339999  , 14.48  , 14.02  , 10.86  , 14.02  , 14.02  , 14.48  , 14.02  , 14.02  , 13.54  , 12.54  , 13.54  , 13.04  , 12.0  , 11.44  , 11.44  , 12.0  , 12.54  , 13.04  , 13.04  , 13.04  , 13.04  , 13.54  , 13.04  , 13.04  , 13.04  , 13.54  , 12.0 );
                        kernels[10] = compute_kernel(x,   30.5  , 49.639999  , 190.119995  , 304.720001  , 265.619995  , 195.360001  , 188.639999  , 243.979996  , 263.820007  , 155.459991  , 113.899994  , 151.199997  , 123.399994  , 97.459999  , 71.839996  , 56.079998  , 46.5  , 28.26  , 14.48  , 10.86  , 14.02  , 22.879999  , 100.32  , 35.459999  , 21.4  , 15.339999  , 12.54  , 13.54  , 8.08  , 8.86  , 14.02  , 18.1  , 15.78  , 0.0  , 0.0  , 3.62  , 17.359999  , 16.98  , 13.54  , 14.92  , 14.02  , 12.0  , 11.44  , 10.86  , 12.54  , 18.1  , 14.92  , 3.62  , 0.0  , 6.26  , 3.62  , 3.62  , 3.62  , 3.62  , 5.1  , 5.1  , 6.26  , 6.26  , 6.26  , 6.26  , 7.24  , 7.24  , 8.08  , 8.86 );
                        kernels[11] = compute_kernel(x,   25.84  , 31.139999  , 12.54  , 16.18  , 17.359999  , 12.54  , 11.44  , 13.04  , 14.92  , 21.4  , 26.099998  , 17.719999  , 14.48  , 14.92  , 13.54  , 13.54  , 13.54  , 15.339999  , 16.18  , 12.54  , 14.48  , 27.32  , 19.82  , 20.459999  , 20.459999  , 18.459999  , 20.779999  , 19.82  , 22.6  , 27.559999  , 18.459999  , 13.54  , 13.54  , 8.86  , 3.62  , 9.559999  , 14.02  , 16.98  , 22.02  , 17.359999  , 14.02  , 13.54  , 12.0  , 10.86  , 12.54  , 13.54  , 11.44  , 8.08  , 10.219999  , 8.86  , 10.219999  , 8.86  , 9.559999  , 10.86  , 14.02  , 11.44  , 15.339999  , 14.48  , 12.54  , 11.44  , 10.86  , 10.86  , 10.86  , 10.86 );
                        kernels[12] = compute_kernel(x,   23.18  , 20.779999  , 21.1  , 21.719999  , 18.459999  , 16.58  , 16.58  , 12.54  , 8.86  , 17.719999  , 27.32  , 26.099998  , 23.18  , 20.459999  , 20.459999  , 17.719999  , 19.82  , 25.599998  , 8.86  , 17.719999  , 16.98  , 6.26  , 7.24  , 11.44  , 13.54  , 16.18  , 24.82  , 24.0  , 19.82  , 16.58  , 15.78  , 17.359999  , 17.359999  , 16.18  , 13.54  , 8.08  , 5.1  , 5.1  , 6.26  , 8.08  , 7.24  , 6.26  , 8.08  , 7.24  , 9.559999  , 9.559999  , 9.559999  , 10.86  , 9.559999  , 8.86  , 12.0  , 12.54  , 10.86  , 3.62  , 0.0  , 0.0  , 0.0  , 0.0  , 3.62  , 6.26  , 8.08  , 9.559999  , 8.08  , 5.1 );
                        kernels[13] = compute_kernel(x,   12.0  , 6.26  , 11.44  , 30.5  , 14.02  , 9.559999  , 22.02  , 34.139999  , 29.179998  , 30.5  , 27.799999  , 28.5  , 25.08  , 25.599998  , 25.599998  , 19.139999  , 16.18  , 18.459999  , 25.08  , 27.559999  , 23.459999  , 14.92  , 13.54  , 14.48  , 15.339999  , 17.719999  , 6.26  , 15.78  , 18.459999  , 9.559999  , 8.86  , 8.08  , 9.559999  , 12.0  , 26.34  , 23.74  , 21.1  , 19.48  , 18.459999  , 19.139999  , 20.139999  , 14.48  , 5.1  , 5.1  , 3.62  , 7.24  , 8.86  , 8.86  , 8.08  , 11.44  , 12.0  , 17.359999  , 17.719999  , 14.02  , 9.559999  , 9.559999  , 9.559999  , 5.1  , 0.0  , 5.1  , 5.1  , 5.1  , 5.1  , 0.0 );
                        kernels[14] = compute_kernel(x,   22.02  , 29.179998  , 45.5  , 26.34  , 16.98  , 17.359999  , 21.719999  , 43.739998  , 47.48  , 19.82  , 24.539999  , 12.0  , 18.1  , 18.459999  , 19.139999  , 20.779999  , 15.339999  , 13.54  , 12.54  , 12.54  , 12.54  , 12.0  , 12.54  , 12.54  , 11.44  , 15.78  , 13.04  , 10.86  , 8.86  , 7.24  , 5.1  , 5.1  , 3.62  , 6.26  , 7.24  , 8.86  , 8.86  , 9.559999  , 10.219999  , 10.86  , 12.54  , 11.44  , 11.44  , 11.44  , 11.44  , 10.86  , 10.86  , 11.44  , 10.86  , 11.44  , 10.86  , 10.86  , 10.86  , 10.86  , 8.86  , 8.86  , 6.26  , 5.1  , 0.0  , 0.0  , 0.0  , 0.0  , 3.62  , 3.62 );
                        kernels[15] = compute_kernel(x,   20.779999  , 19.48  , 20.139999  , 19.139999  , 19.82  , 18.799999  , 19.139999  , 18.799999  , 18.799999  , 9.559999  , 0.0  , 3.62  , 15.339999  , 22.879999  , 21.1  , 19.48  , 12.54  , 3.62  , 0.0  , 0.0  , 3.62  , 0.0  , 6.26  , 14.48  , 16.98  , 6.26  , 3.62  , 3.62  , 9.559999  , 13.04  , 16.18  , 14.92  , 13.04  , 11.44  , 10.86  , 12.54  , 13.54  , 19.48  , 8.86  , 3.62  , 6.26  , 0.0  , 5.1  , 3.62  , 3.62  , 3.62  , 6.26  , 7.24  , 8.08  , 8.86  , 7.24  , 7.24  , 7.24  , 7.24  , 7.24  , 8.08  , 7.24  , 7.24  , 6.26  , 6.26  , 5.1  , 6.26  , 6.26  , 6.26 );
                        kernels[16] = compute_kernel(x,   23.74  , 23.74  , 19.48  , 16.58  , 16.58  , 13.54  , 14.48  , 16.18  , 24.279999  , 71.299995  , 27.32  , 22.02  , 30.5  , 34.139999  , 30.5  , 28.039999  , 25.84  , 20.139999  , 13.54  , 12.54  , 16.58  , 26.099998  , 29.619999  , 26.599998  , 5.1  , 10.219999  , 14.02  , 19.48  , 22.879999  , 43.119999  , 26.34  , 21.1  , 5.1  , 10.219999  , 16.58  , 24.0  , 22.02  , 22.299999  , 19.82  , 18.1  , 16.18  , 15.78  , 18.459999  , 18.799999  , 16.58  , 8.86  , 3.62  , 3.62  , 5.1  , 3.62  , 7.24  , 7.24  , 9.559999  , 11.44  , 9.559999  , 15.78  , 8.86  , 6.26  , 0.0  , 5.1  , 5.1  , 5.1  , 5.1  , 8.08 );
                        kernels[17] = compute_kernel(x,   26.84  , 23.18  , 24.82  , 24.279999  , 24.279999  , 23.18  , 23.74  , 25.599998  , 22.879999  , 18.799999  , 18.799999  , 20.779999  , 27.32  , 32.380001  , 28.26  , 23.459999  , 16.58  , 12.0  , 10.86  , 10.86  , 14.48  , 30.279999  , 12.54  , 14.48  , 10.86  , 10.219999  , 10.86  , 8.08  , 9.559999  , 18.459999  , 24.279999  , 24.82  , 22.299999  , 20.459999  , 19.48  , 18.459999  , 16.18  , 15.78  , 13.04  , 7.24  , 6.26  , 6.26  , 6.26  , 8.08  , 8.86  , 7.24  , 8.08  , 9.559999  , 13.04  , 12.54  , 10.86  , 11.44  , 12.0  , 8.86  , 6.26  , 8.08  , 8.86  , 9.559999  , 10.219999  , 6.26  , 0.0  , 3.62  , 6.26  , 7.24 );
                        kernels[18] = compute_kernel(x,   15.78  , 14.02  , 3.62  , 8.08  , 13.54  , 18.1  , 18.799999  , 17.359999  , 14.48  , 14.48  , 13.04  , 12.54  , 13.04  , 9.559999  , 6.26  , 6.26  , 6.26  , 5.1  , 3.62  , 5.1  , 5.1  , 7.24  , 9.559999  , 8.08  , 9.559999  , 8.86  , 8.86  , 9.559999  , 8.08  , 8.08  , 8.08  , 8.08  , 8.08  , 8.86  , 8.08  , 6.26  , 5.1  , 5.1  , 6.26  , 8.86  , 8.08  , 3.62  , 0.0  , 3.62  , 3.62  , 3.62  , 0.0  , 3.62  , 5.1  , 5.1  , 3.62  , 10.219999  , 12.54  , 14.48  , 15.78  , 14.02  , 12.0  , 10.86  , 10.219999  , 12.0  , 10.86  , 6.26  , 0.0  , 0.0 );
                        kernels[19] = compute_kernel(x,   28.5  , 29.4  , 27.32  , 24.539999  , 22.6  , 22.6  , 22.6  , 23.18  , 18.799999  , 16.98  , 23.18  , 24.539999  , 23.74  , 21.719999  , 24.539999  , 27.32  , 33.759998  , 36.559998  , 45.059998  , 28.959999  , 22.6  , 18.459999  , 8.08  , 12.54  , 21.1  , 26.84  , 30.92  , 29.4  , 27.32  , 24.82  , 24.279999  , 24.0  , 21.719999  , 19.48  , 11.44  , 6.26  , 0.0  , 0.0  , 0.0  , 0.0  , 3.62  , 5.1  , 7.24  , 8.86  , 9.559999  , 12.54  , 10.219999  , 11.44  , 10.86  , 9.559999  , 10.219999  , 8.08  , 8.08  , 8.08  , 14.02  , 18.799999  , 23.18  , 26.099998  , 21.719999  , 14.92  , 11.44  , 5.1  , 0.0  , 0.0 );
                        kernels[20] = compute_kernel(x,   19.48  , 19.82  , 20.459999  , 18.799999  , 19.139999  , 18.459999  , 13.04  , 3.62  , 6.26  , 16.98  , 20.779999  , 18.799999  , 17.359999  , 9.559999  , 3.62  , 3.62  , 3.62  , 7.24  , 3.62  , 8.08  , 16.18  , 16.58  , 3.62  , 3.62  , 0.0  , 3.62  , 7.24  , 22.299999  , 20.779999  , 17.719999  , 15.78  , 15.78  , 14.48  , 13.54  , 12.54  , 8.86  , 3.62  , 0.0  , 0.0  , 0.0  , 3.62  , 0.0  , 5.1  , 6.26  , 9.559999  , 10.86  , 8.86  , 9.559999  , 10.86  , 8.08  , 6.26  , 5.1  , 5.1  , 5.1  , 6.26  , 6.26  , 6.26  , 7.24  , 7.24  , 6.26  , 7.24  , 7.24  , 8.08  , 8.08 );
                        kernels[21] = compute_kernel(x,   11.44  , 5.1  , 9.559999  , 10.86  , 9.559999  , 13.04  , 14.02  , 15.339999  , 27.32  , 26.099998  , 16.98  , 15.78  , 16.58  , 14.92  , 14.48  , 14.48  , 13.54  , 14.48  , 13.54  , 11.44  , 20.459999  , 16.58  , 24.279999  , 23.74  , 22.299999  , 18.459999  , 15.78  , 12.54  , 15.339999  , 59.359997  , 29.4  , 12.0  , 5.1  , 11.44  , 11.44  , 15.78  , 20.459999  , 13.54  , 13.04  , 11.44  , 10.219999  , 10.219999  , 14.92  , 31.139999  , 20.459999  , 7.24  , 0.0  , 0.0  , 0.0  , 3.62  , 3.62  , 6.26  , 9.559999  , 10.219999  , 10.86  , 12.0  , 10.86  , 9.559999  , 9.559999  , 8.86  , 11.44  , 11.44  , 12.54  , 12.54 );
                        kernels[22] = compute_kernel(x,   27.08  , 24.0  , 20.459999  , 20.459999  , 22.02  , 20.459999  , 19.82  , 17.719999  , 15.339999  , 12.54  , 15.339999  , 17.719999  , 51.579998  , 24.0  , 23.18  , 27.32  , 21.1  , 15.78  , 14.48  , 14.92  , 18.459999  , 25.84  , 21.4  , 17.359999  , 22.02  , 0.0  , 6.26  , 10.219999  , 11.44  , 18.459999  , 21.1  , 18.459999  , 14.48  , 13.04  , 12.54  , 12.54  , 13.04  , 13.54  , 12.0  , 10.219999  , 8.08  , 5.1  , 3.62  , 3.62  , 5.1  , 8.08  , 7.24  , 9.559999  , 7.24  , 13.54  , 11.44  , 14.02  , 12.0  , 12.54  , 12.0  , 8.86  , 13.04  , 12.0  , 14.48  , 14.92  , 14.92  , 16.58  , 16.58  , 10.86 );
                        kernels[23] = compute_kernel(x,   25.84  , 28.26  , 22.02  , 12.0  , 8.86  , 8.08  , 9.559999  , 13.04  , 19.48  , 45.200001  , 28.039999  , 26.099998  , 22.879999  , 21.1  , 22.02  , 24.279999  , 25.34  , 22.299999  , 22.02  , 24.539999  , 31.76  , 28.039999  , 26.84  , 24.279999  , 18.459999  , 16.98  , 17.359999  , 15.78  , 13.54  , 17.719999  , 24.0  , 17.359999  , 7.24  , 0.0  , 0.0  , 3.62  , 9.559999  , 24.279999  , 25.08  , 24.0  , 22.879999  , 22.6  , 23.18  , 24.539999  , 34.34  , 23.18  , 14.02  , 6.26  , 3.62  , 7.24  , 8.86  , 10.86  , 13.54  , 15.78  , 16.18  , 15.78  , 16.98  , 16.98  , 14.02  , 5.1  , 0.0  , 0.0  , 12.54  , 25.84 );
                        kernels[24] = compute_kernel(x,   23.18  , 14.02  , 10.219999  , 8.08  , 7.24  , 7.24  , 10.219999  , 16.98  , 26.34  , 26.599998  , 22.6  , 22.6  , 21.4  , 20.139999  , 22.299999  , 22.299999  , 15.78  , 18.1  , 26.599998  , 31.139999  , 30.699999  , 24.82  , 17.719999  , 16.98  , 16.18  , 15.78  , 11.44  , 8.08  , 15.78  , 17.359999  , 10.219999  , 8.86  , 8.86  , 8.86  , 7.24  , 20.779999  , 18.799999  , 17.359999  , 16.58  , 16.58  , 16.98  , 15.78  , 18.459999  , 7.24  , 6.26  , 3.62  , 3.62  , 3.62  , 5.1  , 6.26  , 8.08  , 10.219999  , 10.86  , 13.04  , 13.54  , 12.54  , 13.04  , 10.86  , 8.08  , 9.559999  , 8.08  , 5.1  , 6.26  , 14.02 );
                        kernels[25] = compute_kernel(x,   24.82  , 14.92  , 8.08  , 5.1  , 8.08  , 18.459999  , 7.24  , 10.219999  , 13.04  , 17.719999  , 15.339999  , 15.78  , 16.58  , 16.98  , 15.78  , 16.58  , 15.78  , 16.18  , 15.339999  , 14.48  , 13.04  , 3.62  , 5.1  , 12.54  , 17.719999  , 17.359999  , 15.78  , 10.219999  , 6.26  , 3.62  , 3.62  , 8.08  , 10.219999  , 3.62  , 15.78  , 16.18  , 6.26  , 6.26  , 5.1  , 6.26  , 9.559999  , 17.719999  , 16.18  , 15.339999  , 14.02  , 13.54  , 12.54  , 12.0  , 22.879999  , 24.82  , 7.24  , 3.62  , 6.26  , 8.08  , 5.1  , 6.26  , 5.1  , 8.86  , 7.24  , 11.44  , 13.04  , 9.559999  , 10.219999  , 7.24 );
                        kernels[26] = compute_kernel(x,   15.78  , 12.54  , 9.559999  , 6.26  , 5.1  , 6.26  , 11.44  , 18.1  , 30.5  , 30.279999  , 24.279999  , 22.6  , 23.18  , 27.32  , 23.74  , 8.08  , 8.86  , 61.099998  , 24.82  , 39.82  , 42.200001  , 29.619999  , 28.039999  , 29.619999  , 36.739998  , 53.32  , 24.82  , 19.48  , 10.219999  , 14.02  , 18.459999  , 18.799999  , 23.74  , 21.4  , 20.139999  , 16.18  , 14.48  , 12.54  , 12.0  , 10.86  , 15.78  , 22.879999  , 19.82  , 15.78  , 9.559999  , 0.0  , 0.0  , 0.0  , 0.0  , 3.62  , 7.24  , 8.08  , 10.219999  , 9.559999  , 10.219999  , 11.44  , 9.559999  , 11.44  , 12.0  , 12.54  , 13.04  , 14.92  , 14.92  , 16.58 );
                        kernels[27] = compute_kernel(x,   16.18  , 15.339999  , 15.339999  , 14.92  , 15.78  , 15.339999  , 16.58  , 13.54  , 12.54  , 14.92  , 19.139999  , 16.98  , 12.0  , 12.0  , 11.44  , 10.86  , 9.559999  , 8.86  , 10.219999  , 14.48  , 8.86  , 0.0  , 0.0  , 0.0  , 0.0  , 12.0  , 10.219999  , 10.219999  , 10.219999  , 10.219999  , 10.86  , 10.86  , 10.219999  , 9.559999  , 10.86  , 8.08  , 5.1  , 3.62  , 3.62  , 3.62  , 3.62  , 0.0  , 3.62  , 3.62  , 5.1  , 9.559999  , 8.86  , 5.1  , 5.1  , 5.1  , 3.62  , 5.1  , 3.62  , 3.62  , 6.26  , 5.1  , 5.1  , 6.26  , 8.08  , 8.08  , 10.219999  , 8.86  , 8.86  , 6.26 );
                        kernels[28] = compute_kernel(x,   46.919998  , 55.379997  , 112.579994  , 73.119995  , 98.139999  , 135.319992  , 127.219994  , 66.059998  , 30.059999  , 26.84  , 29.179998  , 28.719999  , 25.08  , 19.48  , 17.359999  , 15.339999  , 13.04  , 8.86  , 9.559999  , 19.82  , 68.599998  , 20.459999  , 22.879999  , 26.34  , 3.62  , 5.1  , 8.08  , 8.86  , 23.74  , 42.82  , 43.279999  , 13.54  , 7.24  , 5.1  , 7.24  , 18.799999  , 16.58  , 14.48  , 14.02  , 13.04  , 13.54  , 14.48  , 14.92  , 23.74  , 34.899998  , 19.82  , 7.24  , 0.0  , 5.1  , 5.1  , 8.86  , 12.0  , 13.54  , 13.04  , 15.339999  , 14.92  , 17.359999  , 15.78  , 16.58  , 16.18  , 14.02  , 14.02  , 13.54  , 13.54 );
                        kernels[29] = compute_kernel(x,   32.98  , 16.58  , 13.54  , 15.78  , 17.359999  , 24.279999  , 29.84  , 65.860001  , 28.719999  , 26.099998  , 28.039999  , 30.059999  , 28.26  , 28.039999  , 23.18  , 15.339999  , 16.58  , 24.82  , 32.779999  , 39.82  , 37.079998  , 31.139999  , 21.1  , 15.339999  , 13.54  , 26.099998  , 35.639999  , 29.179998  , 19.82  , 6.26  , 9.559999  , 15.339999  , 23.74  , 35.82  , 19.82  , 20.779999  , 19.139999  , 17.719999  , 15.339999  , 16.58  , 17.359999  , 30.699999  , 27.32  , 14.92  , 5.1  , 0.0  , 3.62  , 5.1  , 6.26  , 9.559999  , 10.219999  , 13.54  , 16.98  , 13.54  , 9.559999  , 9.559999  , 10.219999  , 8.08  , 10.219999  , 9.559999  , 9.559999  , 8.86  , 6.26  , 10.86 );
                        kernels[30] = compute_kernel(x,   23.74  , 25.08  , 14.92  , 14.92  , 12.0  , 10.219999  , 11.44  , 17.719999  , 18.799999  , 15.339999  , 15.339999  , 12.0  , 10.86  , 10.219999  , 10.219999  , 10.219999  , 10.86  , 13.04  , 8.86  , 5.1  , 7.24  , 9.559999  , 14.48  , 16.98  , 16.18  , 10.86  , 3.62  , 0.0  , 0.0  , 0.0  , 5.1  , 17.719999  , 26.84  , 22.02  , 14.48  , 7.24  , 9.559999  , 12.54  , 13.04  , 19.139999  , 18.1  , 18.459999  , 15.78  , 12.0  , 9.559999  , 10.219999  , 10.219999  , 10.86  , 11.44  , 7.24  , 11.44  , 8.08  , 0.0  , 0.0  , 0.0  , 0.0  , 3.62  , 6.26  , 7.24  , 9.559999  , 9.559999  , 10.219999  , 8.86  , 8.08 );
                        kernels[31] = compute_kernel(x,   52.699997  , 33.959999  , 33.18  , 36.739998  , 37.439999  , 33.959999  , 34.899998  , 22.02  , 23.459999  , 28.26  , 30.279999  , 30.92  , 27.559999  , 18.1  , 14.92  , 15.339999  , 17.719999  , 19.82  , 13.54  , 8.08  , 0.0  , 0.0  , 17.359999  , 22.02  , 21.719999  , 19.82  , 19.139999  , 18.1  , 15.78  , 15.78  , 14.48  , 15.78  , 14.02  , 7.24  , 0.0  , 3.62  , 3.62  , 5.1  , 7.24  , 8.08  , 10.219999  , 10.86  , 9.559999  , 11.44  , 13.54  , 9.559999  , 7.24  , 5.1  , 5.1  , 3.62  , 5.1  , 5.1  , 5.1  , 6.26  , 7.24  , 8.08  , 8.86  , 9.559999  , 14.92  , 12.54  , 8.86  , 6.26  , 7.24  , 9.559999 );
                        kernels[32] = compute_kernel(x,   8.08  , 10.219999  , 22.299999  , 37.259998  , 27.08  , 26.099998  , 22.6  , 21.4  , 20.139999  , 18.799999  , 18.799999  , 19.82  , 19.48  , 15.339999  , 21.4  , 24.0  , 23.18  , 24.82  , 24.0  , 19.82  , 18.1  , 16.58  , 12.0  , 3.62  , 11.44  , 13.54  , 11.44  , 11.44  , 12.54  , 14.92  , 26.84  , 23.459999  , 18.459999  , 16.98  , 16.18  , 17.359999  , 18.1  , 21.1  , 19.48  , 14.48  , 25.599998  , 14.48  , 11.44  , 8.86  , 10.86  , 14.92  , 20.459999  , 19.48  , 23.459999  , 16.18  , 13.04  , 10.86  , 9.559999  , 8.86  , 6.26  , 5.1  , 8.08  , 8.86  , 11.44  , 12.0  , 18.1  , 19.82  , 18.1  , 16.98 );
                        kernels[33] = compute_kernel(x,   27.08  , 27.559999  , 24.539999  , 22.299999  , 23.18  , 21.719999  , 22.02  , 17.719999  , 17.359999  , 22.6  , 25.34  , 22.02  , 19.139999  , 13.04  , 13.04  , 10.219999  , 8.86  , 3.62  , 16.98  , 16.98  , 14.48  , 15.339999  , 14.92  , 16.98  , 17.359999  , 28.5  , 24.539999  , 23.459999  , 21.1  , 20.459999  , 20.139999  , 14.92  , 8.86  , 5.1  , 3.62  , 3.62  , 6.26  , 6.26  , 9.559999  , 10.86  , 13.04  , 11.44  , 7.24  , 13.54  , 11.44  , 9.559999  , 7.24  , 8.08  , 7.24  , 3.62  , 3.62  , 3.62  , 7.24  , 20.779999  , 15.339999  , 6.26  , 5.1  , 3.62  , 0.0  , 0.0  , 0.0  , 0.0  , 5.1  , 5.1 );
                        kernels[34] = compute_kernel(x,   18.459999  , 19.139999  , 18.459999  , 18.799999  , 17.359999  , 18.799999  , 18.459999  , 15.78  , 13.04  , 14.02  , 20.459999  , 22.299999  , 22.879999  , 20.779999  , 22.6  , 23.459999  , 21.719999  , 24.82  , 14.48  , 12.54  , 10.86  , 15.78  , 17.359999  , 17.359999  , 22.02  , 20.459999  , 18.1  , 14.48  , 12.54  , 12.0  , 10.86  , 12.54  , 13.04  , 8.86  , 5.1  , 3.62  , 0.0  , 0.0  , 0.0  , 3.62  , 5.1  , 5.1  , 8.86  , 8.08  , 10.86  , 10.86  , 9.559999  , 8.08  , 6.26  , 8.86  , 7.24  , 3.62  , 0.0  , 0.0  , 0.0  , 5.1  , 6.26  , 8.86  , 7.24  , 10.219999  , 3.62  , 0.0  , 0.0  , 0.0 );
                        kernels[35] = compute_kernel(x,   29.84  , 33.559998  , 29.619999  , 26.34  , 15.78  , 18.799999  , 23.74  , 31.34  , 54.18  , 21.1  , 27.799999  , 31.139999  , 38.299999  , 72.299995  , 88.959999  , 44.48  , 38.139999  , 93.559998  , 92.079994  , 62.18  , 44.919998  , 44.619999  , 42.82  , 36.919998  , 34.139999  , 31.959999  , 22.299999  , 16.58  , 15.78  , 17.359999  , 24.82  , 21.1  , 17.719999  , 16.98  , 15.78  , 15.339999  , 16.98  , 15.339999  , 16.98  , 18.1  , 15.339999  , 18.799999  , 21.719999  , 22.6  , 19.139999  , 14.92  , 11.44  , 10.219999  , 14.92  , 23.74  , 17.719999  , 12.0  , 14.02  , 16.58  , 16.98  , 18.459999  , 18.1  , 18.799999  , 17.719999  , 15.78  , 18.799999  , 17.719999  , 15.339999  , 15.339999 );
                        kernels[36] = compute_kernel(x,   25.599998  , 25.599998  , 19.82  , 22.299999  , 24.0  , 18.799999  , 10.219999  , 20.779999  , 28.5  , 26.34  , 31.959999  , 86.5  , 233.039993  , 175.099991  , 150.959991  , 160.800003  , 189.759995  , 84.360001  , 70.379997  , 94.879997  , 84.040001  , 70.099998  , 61.32  , 50.799999  , 39.98  , 35.279999  , 23.18  , 22.6  , 22.02  , 20.459999  , 20.459999  , 19.48  , 20.139999  , 22.02  , 19.139999  , 19.48  , 20.779999  , 20.139999  , 19.139999  , 19.48  , 20.459999  , 18.459999  , 17.719999  , 16.98  , 16.18  , 18.1  , 21.1  , 19.48  , 15.78  , 13.04  , 13.04  , 14.48  , 17.719999  , 16.58  , 15.339999  , 17.359999  , 22.02  , 15.339999  , 14.02  , 13.04  , 10.86  , 11.44  , 16.98  , 10.86 );
                        kernels[37] = compute_kernel(x,   24.82  , 25.08  , 25.34  , 22.299999  , 14.92  , 6.26  , 3.62  , 0.0  , 3.62  , 9.559999  , 10.219999  , 12.0  , 12.0  , 14.02  , 12.0  , 73.659996  , 108.119995  , 19.139999  , 22.299999  , 28.039999  , 49.759998  , 43.119999  , 26.84  , 29.619999  , 32.579998  , 34.139999  , 33.360001  , 29.4  , 22.299999  , 21.4  , 20.139999  , 20.779999  , 20.779999  , 22.6  , 21.1  , 19.82  , 19.139999  , 19.82  , 20.459999  , 19.48  , 18.799999  , 18.459999  , 18.1  , 18.1  , 17.359999  , 16.98  , 16.18  , 14.02  , 14.48  , 15.339999  , 11.44  , 9.559999  , 8.86  , 9.559999  , 10.219999  , 10.86  , 16.98  , 36.380001  , 25.84  , 18.799999  , 8.08  , 8.86  , 9.559999  , 6.26 );
                        kernels[38] = compute_kernel(x,   21.719999  , 19.139999  , 13.54  , 11.44  , 10.86  , 15.78  , 20.459999  , 32.779999  , 18.799999  , 20.139999  , 25.08  , 24.279999  , 28.26  , 134.819992  , 145.919998  , 38.48  , 49.899998  , 62.899998  , 71.199997  , 68.479996  , 39.82  , 33.18  , 30.279999  , 27.559999  , 22.6  , 18.799999  , 15.339999  , 16.98  , 17.719999  , 16.58  , 14.48  , 14.02  , 13.54  , 14.48  , 14.92  , 13.54  , 13.54  , 13.54  , 13.54  , 13.04  , 13.04  , 13.04  , 12.0  , 12.0  , 11.44  , 14.02  , 15.339999  , 15.339999  , 16.18  , 17.719999  , 17.359999  , 17.719999  , 16.58  , 19.139999  , 20.139999  , 14.48  , 18.1  , 20.459999  , 13.04  , 10.86  , 11.44  , 9.559999  , 8.08  , 10.86 );
                        kernels[39] = compute_kernel(x,   12.0  , 16.18  , 19.139999  , 17.719999  , 50.279999  , 31.76  , 16.18  , 21.1  , 35.279999  , 101.559998  , 117.139999  , 37.259998  , 20.779999  , 22.6  , 21.719999  , 20.779999  , 19.48  , 17.719999  , 14.92  , 15.78  , 9.559999  , 13.04  , 12.0  , 10.219999  , 9.559999  , 10.86  , 12.54  , 13.54  , 11.44  , 12.54  , 14.92  , 16.18  , 16.98  , 17.719999  , 17.359999  , 14.48  , 11.44  , 8.86  , 7.24  , 8.08  , 9.559999  , 11.44  , 13.04  , 14.02  , 15.78  , 16.18  , 17.719999  , 19.139999  , 20.139999  , 19.139999  , 18.459999  , 12.54  , 21.719999  , 16.98  , 11.44  , 10.86  , 9.559999  , 7.24  , 3.62  , 3.62  , 0.0  , 0.0  , 3.62  , 0.0 );
                        kernels[40] = compute_kernel(x,   21.4  , 13.04  , 0.0  , 0.0  , 0.0  , 0.0  , 6.26  , 20.139999  , 13.54  , 10.219999  , 10.219999  , 11.44  , 14.48  , 140.0  , 108.239998  , 62.48  , 102.779999  , 18.459999  , 37.959999  , 44.48  , 30.699999  , 26.84  , 24.539999  , 22.299999  , 21.1  , 16.98  , 15.339999  , 13.04  , 14.02  , 19.82  , 20.459999  , 19.139999  , 19.139999  , 19.48  , 19.48  , 19.82  , 19.139999  , 18.459999  , 17.359999  , 16.98  , 15.78  , 15.339999  , 14.02  , 13.04  , 13.54  , 13.04  , 10.86  , 9.559999  , 10.86  , 10.86  , 10.219999  , 8.86  , 8.86  , 8.86  , 10.219999  , 11.44  , 8.08  , 6.26  , 3.62  , 0.0  , 0.0  , 0.0  , 0.0  , 0.0 );
                        kernels[41] = compute_kernel(x,   128.759995  , 195.099991  , 126.559998  , 118.799995  , 130.860001  , 93.779999  , 33.759998  , 56.66  , 64.540001  , 53.559998  , 46.200001  , 43.739998  , 36.02  , 31.139999  , 25.84  , 43.439999  , 22.02  , 18.799999  , 19.82  , 21.719999  , 20.139999  , 18.799999  , 19.48  , 20.459999  , 17.359999  , 18.1  , 16.18  , 14.48  , 13.54  , 12.54  , 12.0  , 10.219999  , 8.08  , 8.08  , 7.24  , 6.26  , 8.08  , 8.08  , 8.08  , 8.08  , 8.08  , 7.24  , 7.24  , 10.219999  , 14.48  , 12.54  , 10.219999  , 12.54  , 13.04  , 13.54  , 15.78  , 14.92  , 14.02  , 13.04  , 14.48  , 24.279999  , 24.82  , 17.719999  , 15.78  , 17.359999  , 16.18  , 14.48  , 11.44  , 5.1 );
                        kernels[42] = compute_kernel(x,   22.6  , 14.48  , 10.219999  , 8.08  , 10.219999  , 26.099998  , 11.44  , 12.0  , 13.54  , 14.92  , 17.359999  , 64.360001  , 175.779999  , 109.579994  , 38.139999  , 69.159996  , 169.73999  , 68.400002  , 36.02  , 44.619999  , 45.779999  , 42.82  , 39.139999  , 34.139999  , 28.5  , 27.799999  , 26.34  , 23.459999  , 22.02  , 20.139999  , 18.1  , 16.58  , 16.18  , 16.18  , 16.58  , 17.359999  , 17.719999  , 18.1  , 16.98  , 16.18  , 15.78  , 15.339999  , 14.92  , 14.02  , 12.54  , 12.0  , 10.219999  , 7.24  , 7.24  , 6.26  , 10.86  , 11.44  , 9.559999  , 8.86  , 12.54  , 67.619995  , 29.179998  , 21.4  , 27.32  , 12.0  , 6.26  , 5.1  , 7.24  , 6.26 );
                        kernels[43] = compute_kernel(x,   28.959999  , 16.98  , 23.18  , 72.839996  , 99.339996  , 81.339996  , 20.139999  , 18.459999  , 20.779999  , 21.4  , 18.1  , 14.48  , 10.86  , 7.24  , 8.08  , 8.86  , 10.86  , 9.559999  , 10.219999  , 10.86  , 12.0  , 12.54  , 11.44  , 10.86  , 11.44  , 12.0  , 12.0  , 12.0  , 10.219999  , 8.08  , 7.24  , 6.26  , 5.1  , 6.26  , 6.26  , 8.08  , 12.54  , 7.24  , 3.62  , 7.24  , 7.24  , 5.1  , 3.62  , 3.62  , 3.62  , 3.62  , 0.0  , 5.1  , 13.54  , 12.54  , 8.08  , 3.62  , 3.62  , 0.0  , 0.0  , 0.0  , 5.1  , 10.219999  , 8.08  , 9.559999  , 5.1  , 6.26  , 5.1  , 3.62 );
                        kernels[44] = compute_kernel(x,   15.78  , 0.0  , 3.62  , 6.26  , 8.86  , 19.48  , 14.92  , 16.98  , 35.279999  , 164.259995  , 146.039993  , 40.939999  , 80.040001  , 150.720001  , 133.660004  , 50.799999  , 41.899998  , 51.439999  , 47.34  , 40.779999  , 36.559998  , 34.139999  , 28.959999  , 24.539999  , 19.48  , 16.98  , 16.18  , 15.78  , 16.18  , 16.18  , 17.359999  , 16.98  , 16.18  , 15.339999  , 14.48  , 13.54  , 13.04  , 12.54  , 13.04  , 14.02  , 13.04  , 11.44  , 10.86  , 15.339999  , 14.02  , 11.44  , 5.1  , 5.1  , 7.24  , 8.86  , 10.86  , 10.219999  , 5.1  , 3.62  , 7.24  , 20.779999  , 21.1  , 8.86  , 7.24  , 7.24  , 7.24  , 8.08  , 8.08  , 12.0 );
                        kernels[45] = compute_kernel(x,   18.1  , 16.98  , 20.459999  , 37.619999  , 148.559998  , 65.459999  , 19.82  , 22.02  , 24.279999  , 25.34  , 23.74  , 22.6  , 17.719999  , 8.08  , 8.08  , 12.54  , 13.04  , 15.339999  , 16.98  , 17.359999  , 16.98  , 15.339999  , 15.78  , 18.1  , 16.18  , 16.18  , 14.48  , 14.48  , 15.78  , 15.78  , 14.48  , 10.219999  , 8.86  , 8.86  , 9.559999  , 9.559999  , 11.44  , 12.54  , 5.1  , 7.24  , 5.1  , 10.86  , 12.0  , 9.559999  , 8.08  , 6.26  , 5.1  , 5.1  , 5.1  , 0.0  , 7.24  , 14.92  , 7.24  , 6.26  , 5.1  , 3.62  , 7.24  , 11.44  , 10.86  , 11.44  , 12.54  , 12.0  , 12.0  , 10.86 );
                        kernels[46] = compute_kernel(x,   23.18  , 20.139999  , 5.1  , 0.0  , 5.1  , 5.1  , 7.24  , 12.0  , 10.219999  , 7.24  , 9.559999  , 37.079998  , 27.799999  , 8.86  , 5.1  , 10.86  , 22.02  , 42.52  , 27.32  , 24.0  , 21.1  , 21.4  , 20.459999  , 19.139999  , 17.719999  , 13.54  , 13.54  , 18.799999  , 22.879999  , 22.299999  , 24.0  , 24.539999  , 22.299999  , 19.82  , 19.139999  , 18.1  , 19.139999  , 16.98  , 16.58  , 15.78  , 14.92  , 14.92  , 13.54  , 14.02  , 14.02  , 12.54  , 11.44  , 12.0  , 12.54  , 8.08  , 10.219999  , 12.54  , 15.339999  , 14.48  , 12.54  , 20.779999  , 13.54  , 18.1  , 14.02  , 17.719999  , 10.86  , 8.08  , 5.1  , 5.1 );
                        kernels[47] = compute_kernel(x,   22.299999  , 18.1  , 8.86  , 3.62  , 5.1  , 8.08  , 13.04  , 10.86  , 11.44  , 10.86  , 12.54  , 14.48  , 18.459999  , 22.6  , 24.82  , 63.739998  , 28.719999  , 18.1  , 33.360001  , 45.5  , 57.119999  , 47.879997  , 35.459999  , 35.279999  , 39.82  , 38.82  , 31.959999  , 22.6  , 21.1  , 16.18  , 16.98  , 20.139999  , 20.779999  , 21.719999  , 19.82  , 18.799999  , 18.799999  , 18.459999  , 21.4  , 20.779999  , 20.459999  , 20.139999  , 18.799999  , 18.459999  , 18.1  , 16.98  , 16.18  , 14.48  , 15.339999  , 14.92  , 12.0  , 8.86  , 8.08  , 8.86  , 10.219999  , 15.339999  , 34.34  , 30.699999  , 13.54  , 5.1  , 7.24  , 7.24  , 6.26  , 3.62 );
                        kernels[48] = compute_kernel(x,   24.539999  , 23.74  , 17.359999  , 6.26  , 0.0  , 0.0  , 0.0  , 10.219999  , 15.78  , 14.48  , 12.0  , 10.86  , 8.86  , 10.86  , 18.799999  , 100.579994  , 45.639999  , 20.459999  , 16.98  , 40.779999  , 38.139999  , 33.18  , 25.84  , 24.279999  , 25.34  , 21.719999  , 22.6  , 20.459999  , 16.98  , 20.459999  , 19.139999  , 20.459999  , 20.139999  , 20.459999  , 20.139999  , 19.48  , 19.82  , 21.1  , 21.1  , 21.1  , 19.139999  , 18.459999  , 16.98  , 15.78  , 14.92  , 13.04  , 10.86  , 9.559999  , 7.24  , 6.26  , 6.26  , 6.26  , 8.08  , 8.86  , 10.219999  , 10.86  , 8.86  , 5.1  , 6.26  , 0.0  , 0.0  , 0.0  , 0.0  , 3.62 );
                        kernels[49] = compute_kernel(x,   15.78  , 14.92  , 13.54  , 12.0  , 19.82  , 123.279999  , 152.639999  , 121.799995  , 90.339996  , 159.87999  , 101.739998  , 60.579998  , 72.299995  , 65.459999  , 53.439999  , 42.200001  , 31.959999  , 26.34  , 18.1  , 15.78  , 21.1  , 20.779999  , 21.4  , 20.459999  , 17.719999  , 18.1  , 20.139999  , 18.799999  , 19.139999  , 18.799999  , 19.139999  , 18.1  , 18.1  , 19.139999  , 18.1  , 16.98  , 16.98  , 16.98  , 13.54  , 7.24  , 7.24  , 10.86  , 12.0  , 10.86  , 10.219999  , 10.86  , 12.0  , 18.799999  , 12.54  , 36.02  , 22.879999  , 18.459999  , 14.92  , 11.44  , 5.1  , 3.62  , 3.62  , 3.62  , 3.62  , 3.62  , 5.1  , 3.62  , 8.86  , 7.24 );
                        kernels[50] = compute_kernel(x,   34.52  , 17.359999  , 17.359999  , 20.139999  , 21.4  , 21.719999  , 42.059998  , 113.659996  , 211.23999  , 146.039993  , 107.519997  , 215.039993  , 235.860001  , 171.300003  , 165.339996  , 166.039993  , 125.82  , 94.259995  , 71.040001  , 50.419998  , 38.639999  , 31.139999  , 17.719999  , 23.18  , 22.879999  , 22.879999  , 19.82  , 19.48  , 21.719999  , 24.82  , 21.1  , 18.799999  , 19.48  , 17.719999  , 15.339999  , 14.92  , 15.339999  , 17.359999  , 20.779999  , 21.719999  , 23.18  , 32.98  , 28.26  , 22.02  , 19.139999  , 19.48  , 20.779999  , 22.299999  , 24.279999  , 24.82  , 27.799999  , 26.34  , 23.18  , 39.32  , 30.92  , 21.1  , 13.54  , 15.339999  , 12.0  , 8.08  , 26.099998  , 32.779999  , 27.799999  , 21.4 );
                        kernels[51] = compute_kernel(x,   10.219999  , 7.24  , 10.86  , 14.92  , 11.44  , 10.219999  , 16.58  , 14.02  , 6.26  , 17.359999  , 16.18  , 6.26  , 5.1  , 5.1  , 0.0  , 0.0  , 0.0  , 0.0  , 5.1  , 3.62  , 7.24  , 8.08  , 6.26  , 11.44  , 11.44  , 8.08  , 20.139999  , 9.559999  , 8.86  , 12.54  , 14.92  , 7.24  , 6.26  , 5.1  , 7.24  , 6.26  , 8.86  , 8.08  , 8.86  , 5.1  , 5.1  , 13.54  , 8.86  , 10.86  , 10.86  , 8.86  , 5.1  , 0.0  , 3.62  , 3.62  , 5.1  , 5.1  , 8.08  , 8.08  , 8.08  , 7.24  , 8.08  , 10.219999  , 8.08  , 6.26  , 6.26  , 6.26  , 6.26  , 8.08 );
                        kernels[52] = compute_kernel(x,   25.84  , 17.719999  , 13.04  , 17.719999  , 19.82  , 22.299999  , 12.54  , 22.02  , 22.879999  , 35.459999  , 86.5  , 144.099991  , 208.779999  , 132.080002  , 167.919998  , 136.979996  , 123.82  , 44.040001  , 65.059998  , 70.279999  , 59.139999  , 58.139999  , 55.02  , 43.119999  , 37.959999  , 35.639999  , 32.380001  , 25.08  , 22.02  , 21.719999  , 20.459999  , 21.4  , 23.459999  , 20.779999  , 18.459999  , 17.359999  , 16.98  , 18.459999  , 19.82  , 21.1  , 17.359999  , 14.48  , 13.54  , 13.54  , 12.54  , 11.44  , 13.04  , 14.02  , 15.339999  , 13.04  , 10.219999  , 10.86  , 14.48  , 15.78  , 18.799999  , 15.78  , 10.86  , 41.579998  , 39.48  , 34.34  , 34.34  , 32.579998  , 27.32  , 40.939999 );
                        kernels[53] = compute_kernel(x,   44.040001  , 21.4  , 8.86  , 100.959999  , 50.02  , 25.34  , 30.279999  , 30.92  , 25.84  , 23.18  , 17.359999  , 17.719999  , 16.18  , 17.719999  , 19.139999  , 19.82  , 19.139999  , 19.82  , 20.779999  , 20.139999  , 18.1  , 16.98  , 15.78  , 15.78  , 14.92  , 14.92  , 15.78  , 14.92  , 13.54  , 12.0  , 8.86  , 6.26  , 6.26  , 5.1  , 5.1  , 6.26  , 7.24  , 6.26  , 6.26  , 3.62  , 5.1  , 3.62  , 3.62  , 3.62  , 0.0  , 0.0  , 0.0  , 0.0  , 3.62  , 0.0  , 3.62  , 5.1  , 8.08  , 8.86  , 9.559999  , 8.08  , 5.1  , 7.24  , 5.1  , 6.26  , 7.24  , 5.1  , 6.26  , 6.26 );
                        kernels[54] = compute_kernel(x,   28.5  , 36.200001  , 15.339999  , 19.48  , 18.1  , 28.5  , 22.879999  , 16.18  , 16.98  , 24.279999  , 10.86  , 11.44  , 13.04  , 8.86  , 8.08  , 8.86  , 8.08  , 5.1  , 7.24  , 5.1  , 0.0  , 5.1  , 3.62  , 8.08  , 34.719997  , 36.02  , 17.719999  , 25.34  , 18.459999  , 7.24  , 6.26  , 3.62  , 0.0  , 5.1  , 3.62  , 15.339999  , 15.339999  , 6.26  , 3.62  , 0.0  , 0.0  , 0.0  , 5.1  , 8.08  , 10.86  , 11.44  , 13.54  , 14.02  , 13.04  , 14.92  , 13.04  , 13.54  , 13.54  , 11.44  , 11.44  , 8.86  , 13.04  , 15.339999  , 13.04  , 3.62  , 7.24  , 5.1  , 6.26  , 9.559999 );
                        kernels[55] = compute_kernel(x,   18.799999  , 20.139999  , 14.48  , 14.48  , 18.459999  , 26.84  , 153.580002  , 88.360001  , 63.119999  , 86.879997  , 60.68  , 50.939999  , 39.639999  , 38.139999  , 38.139999  , 37.079998  , 32.380001  , 23.74  , 21.719999  , 16.18  , 16.98  , 19.82  , 18.1  , 16.98  , 16.58  , 16.58  , 16.58  , 16.58  , 17.359999  , 17.359999  , 16.98  , 16.18  , 16.18  , 15.78  , 15.339999  , 13.54  , 10.86  , 8.08  , 8.86  , 7.24  , 6.26  , 5.1  , 6.26  , 7.24  , 7.24  , 62.059998  , 36.739998  , 68.299995  , 32.18  , 19.82  , 15.78  , 12.0  , 8.08  , 5.1  , 3.62  , 3.62  , 0.0  , 0.0  , 3.62  , 0.0  , 3.62  , 0.0  , 6.26  , 6.26 );
                        kernels[56] = compute_kernel(x,   18.459999  , 3.62  , 3.62  , 5.1  , 3.62  , 12.54  , 12.0  , 14.02  , 14.92  , 17.359999  , 12.54  , 75.239998  , 39.98  , 66.839996  , 45.639999  , 23.459999  , 29.619999  , 22.6  , 21.719999  , 23.74  , 23.459999  , 22.02  , 22.02  , 18.799999  , 18.799999  , 17.719999  , 15.78  , 15.78  , 17.359999  , 19.139999  , 22.02  , 24.0  , 23.74  , 22.299999  , 22.02  , 20.139999  , 18.799999  , 16.98  , 15.78  , 14.92  , 14.02  , 13.54  , 11.44  , 11.44  , 11.44  , 10.86  , 8.86  , 7.24  , 8.08  , 9.559999  , 11.44  , 13.54  , 12.0  , 11.44  , 7.24  , 3.62  , 3.62  , 3.62  , 3.62  , 5.1  , 5.1  , 3.62  , 0.0  , 0.0 );
                        kernels[57] = compute_kernel(x,   31.559999  , 32.18  , 13.04  , 0.0  , 0.0  , 10.219999  , 35.639999  , 22.299999  , 21.4  , 29.4  , 151.73999  , 187.139999  , 68.479996  , 118.459999  , 118.579994  , 116.799995  , 54.899998  , 34.34  , 36.919998  , 35.82  , 32.98  , 24.82  , 19.48  , 19.48  , 16.18  , 19.139999  , 18.459999  , 17.719999  , 18.1  , 18.799999  , 19.139999  , 20.779999  , 20.459999  , 21.1  , 20.779999  , 20.459999  , 19.139999  , 18.1  , 17.719999  , 16.58  , 14.92  , 13.04  , 10.219999  , 14.02  , 14.02  , 8.86  , 6.26  , 6.26  , 9.559999  , 10.86  , 20.779999  , 18.1  , 18.459999  , 27.08  , 16.98  , 6.26  , 5.1  , 3.62  , 3.62  , 3.62  , 3.62  , 5.1  , 5.1  , 3.62 );
                        decisions[0] = -0.633042355285
                        + kernels[0] * 1.3107969e-05
                        + kernels[1] * 1.209465e-06
                        + kernels[2] * 7.626549e-06
                        + kernels[3] * 7.41745e-07
                        + kernels[4] * 7.542882e-06
                        + kernels[5] * 1.483095e-06
                        + kernels[6] * 1.543483e-06
                        + kernels[7] * 7.993529e-06
                        + kernels[8] * 1.6492606e-05
                        + kernels[10] * -8.406e-09
                        + kernels[12] * -2.315379e-06
                        + kernels[13] * -1.808217e-06
                        + kernels[14] * -4.958999e-06
                        + kernels[15] * -3.142253e-06
                        + kernels[16] * -9.11531e-07
                        + kernels[17] * -1.322944e-06
                        + kernels[18] * -6.612836e-06
                        + kernels[19] * -1.354877e-06
                        + kernels[22] * -5.271638e-06
                        + kernels[23] * -6.58719e-07
                        + kernels[24] * -4.692936e-06
                        + kernels[25] * -5.406753e-06
                        + kernels[27] * -1.1961447e-05
                        + kernels[28] * -4.46384e-07
                        + kernels[30] * -3.427366e-06
                        + kernels[31] * -2.529156e-06
                        + kernels[32] * -8.55591e-07
                        + kernels[34] * -5.5889e-08
                        ;
                        decisions[1] = 0.332706899923
                        + kernels[0] * 1.1808953e-05
                        + kernels[1] * 4.71892e-07
                        + kernels[2] * 4.807132e-06
                        + kernels[3] * 1.6426e-07
                        + kernels[4] * 1.692505e-06
                        + kernels[6] * 5.45659e-07
                        + kernels[7] * 2.798291e-06
                        + kernels[8] * 4.22587e-06
                        + kernels[9] * 1.034969e-06
                        + kernels[35] * -4.97017e-07
                        + kernels[36] * -9.374e-09
                        + kernels[38] * -2.50385e-07
                        + kernels[39] * -5.22198e-07
                        + kernels[40] * -7.7445e-08
                        + kernels[41] * -2.92438e-07
                        + kernels[42] * -4.0545e-08
                        + kernels[43] * -5.06089e-07
                        + kernels[45] * -8.33306e-07
                        + kernels[46] * -3.232429e-06
                        + kernels[48] * -1.500972e-06
                        + kernels[50] * -1.16225e-07
                        + kernels[51] * -1.6387201e-05
                        + kernels[53] * -2.89762e-07
                        + kernels[54] * -1.79022e-06
                        + kernels[55] * -2.82448e-07
                        + kernels[56] * -9.00688e-07
                        + kernels[57] * -2.0788e-08
                        ;
                        decisions[2] = 0.16720007074
                        + kernels[10] * 3.6089e-08
                        + kernels[11] * 4.753248e-06
                        + kernels[13] * 1.798715e-06
                        + kernels[15] * 1.772767e-06
                        + kernels[18] * 1.3984888e-05
                        + kernels[19] * 2.28967e-07
                        + kernels[20] * 2.48293e-06
                        + kernels[21] * 2.153307e-06
                        + kernels[23] * 1.867616e-06
                        + kernels[25] * 5.099395e-06
                        + kernels[26] * 1.027181e-06
                        + kernels[27] * 7.478154e-06
                        + kernels[28] * 3.8089e-08
                        + kernels[29] * 5.3674e-07
                        + kernels[30] * 2.215e-08
                        + kernels[33] * 1.511139e-06
                        + kernels[34] * 3.40754e-06
                        + kernels[35] * -9.31295e-07
                        + kernels[37] * -7.6919e-08
                        + kernels[39] * -6.04736e-07
                        + kernels[41] * -2.67564e-07
                        + kernels[44] * -2.1086e-08
                        + kernels[45] * -2.59838e-07
                        + kernels[46] * -4.851352e-06
                        + kernels[47] * -3.00287e-07
                        + kernels[48] * -9.54476e-07
                        + kernels[49] * -1.88605e-07
                        + kernels[50] * -6.9672e-08
                        + kernels[51] * -3.2792512e-05
                        + kernels[52] * -2.1906e-08
                        + kernels[53] * -9.29113e-07
                        + kernels[54] * -4.588902e-06
                        + kernels[55] * -7.1787e-08
                        + kernels[56] * -1.268865e-06
                        ;
                        votes[decisions[0] > 0 ? 0 : 1] += 1;
                        votes[decisions[1] > 0 ? 0 : 2] += 1;
                        votes[decisions[2] > 0 ? 1 : 2] += 1;
                        int val = votes[0];
                        int idx = 0;

                        for (int i = 1; i < 3; i++) {
                            if (votes[i] > val) {
                                val = votes[i];
                                idx = i;
                            }
                        }

                        return idx;
                    }

                    /**
                    * Predict readable class name
                    */
                    const char* predictLabel(float *x) {
                        return idxToLabel(predict(x));
                    }

                    /**
                    * Convert class idx to readable name
                    */
                    const char* idxToLabel(uint8_t classIdx) {
                        switch (classIdx) {
                            case 0:
                            return "p";
                            case 1:
                            return "a";
                            case 2:
                            return "e";
                            default:
                            return "Houston we have a problem";
                        }
                    }

                protected:
                    /**
                    * Compute kernel between feature vector and support vector.
                    * Kernel type: poly
                    */
                    float compute_kernel(float *x, ...) {
                        va_list w;
                        va_start(w, 64);
                        float kernel = 0.0;

                        for (uint16_t i = 0; i < 64; i++) {
                            kernel += x[i] * va_arg(w, double);
                        }

                        return pow((0.1 * kernel) + 0.0, 2);
                    }
                };
            }
        }
    }
